digraph Tree {
node [shape=box, fontname="helvetica"] ;
edge [fontname="helvetica"] ;
0 [label="x[14] <= 0.265\ngini = 0.476\nsamples = 979\nvalue = [596, 383]"] ;
1 [label="x[1] <= -1.903\ngini = 0.224\nsamples = 615\nvalue = [536, 79]"] ;
0 -> 1 [labeldistance=2.5, labelangle=45, headlabel="True"] ;
2 [label="x[10] <= -0.04\ngini = 0.469\nsamples = 16\nvalue = [6, 10]"] ;
1 -> 2 ;
3 [label="gini = 0.0\nsamples = 7\nvalue = [0, 7]"] ;
2 -> 3 ;
4 [label="x[1] <= -1.974\ngini = 0.444\nsamples = 9\nvalue = [6, 3]"] ;
2 -> 4 ;
5 [label="x[7] <= 0.507\ngini = 0.245\nsamples = 7\nvalue = [6, 1]"] ;
4 -> 5 ;
6 [label="gini = 0.0\nsamples = 4\nvalue = [4, 0]"] ;
5 -> 6 ;
7 [label="x[0] <= -0.153\ngini = 0.444\nsamples = 3\nvalue = [2, 1]"] ;
5 -> 7 ;
8 [label="gini = 0.0\nsamples = 1\nvalue = [1, 0]"] ;
7 -> 8 ;
9 [label="x[0] <= 0.669\ngini = 0.5\nsamples = 2\nvalue = [1, 1]"] ;
7 -> 9 ;
10 [label="gini = 0.0\nsamples = 1\nvalue = [0, 1]"] ;
9 -> 10 ;
11 [label="gini = 0.0\nsamples = 1\nvalue = [1, 0]"] ;
9 -> 11 ;
12 [label="gini = 0.0\nsamples = 2\nvalue = [0, 2]"] ;
4 -> 12 ;
13 [label="x[4] <= -0.145\ngini = 0.204\nsamples = 599\nvalue = [530, 69]"] ;
1 -> 13 ;
14 [label="x[1] <= -1.229\ngini = 0.143\nsamples = 438\nvalue = [404, 34]"] ;
13 -> 14 ;
15 [label="x[3] <= 1.403\ngini = 0.391\nsamples = 15\nvalue = [11, 4]"] ;
14 -> 15 ;
16 [label="x[6] <= 0.21\ngini = 0.337\nsamples = 14\nvalue = [11, 3]"] ;
15 -> 16 ;
17 [label="gini = 0.0\nsamples = 5\nvalue = [5, 0]"] ;
16 -> 17 ;
18 [label="x[4] <= -0.41\ngini = 0.444\nsamples = 9\nvalue = [6, 3]"] ;
16 -> 18 ;
19 [label="x[4] <= -0.539\ngini = 0.444\nsamples = 3\nvalue = [1, 2]"] ;
18 -> 19 ;
20 [label="gini = 0.0\nsamples = 1\nvalue = [1, 0]"] ;
19 -> 20 ;
21 [label="gini = 0.0\nsamples = 2\nvalue = [0, 2]"] ;
19 -> 21 ;
22 [label="x[4] <= -0.366\ngini = 0.278\nsamples = 6\nvalue = [5, 1]"] ;
18 -> 22 ;
23 [label="gini = 0.0\nsamples = 4\nvalue = [4, 0]"] ;
22 -> 23 ;
24 [label="x[7] <= 0.507\ngini = 0.5\nsamples = 2\nvalue = [1, 1]"] ;
22 -> 24 ;
25 [label="gini = 0.0\nsamples = 1\nvalue = [1, 0]"] ;
24 -> 25 ;
26 [label="gini = 0.0\nsamples = 1\nvalue = [0, 1]"] ;
24 -> 26 ;
27 [label="gini = 0.0\nsamples = 1\nvalue = [0, 1]"] ;
15 -> 27 ;
28 [label="x[11] <= 0.692\ngini = 0.132\nsamples = 423\nvalue = [393, 30]"] ;
14 -> 28 ;
29 [label="x[7] <= 0.507\ngini = 0.113\nsamples = 366\nvalue = [344, 22]"] ;
28 -> 29 ;
30 [label="x[0] <= -1.648\ngini = 0.086\nsamples = 267\nvalue = [255, 12]"] ;
29 -> 30 ;
31 [label="x[4] <= -0.473\ngini = 0.375\nsamples = 4\nvalue = [3, 1]"] ;
30 -> 31 ;
32 [label="gini = 0.0\nsamples = 3\nvalue = [3, 0]"] ;
31 -> 32 ;
33 [label="gini = 0.0\nsamples = 1\nvalue = [0, 1]"] ;
31 -> 33 ;
34 [label="x[0] <= -0.796\ngini = 0.08\nsamples = 263\nvalue = [252, 11]"] ;
30 -> 34 ;
35 [label="gini = 0.0\nsamples = 67\nvalue = [67, 0]"] ;
34 -> 35 ;
36 [label="x[0] <= -0.784\ngini = 0.106\nsamples = 196\nvalue = [185, 11]"] ;
34 -> 36 ;
37 [label="gini = 0.0\nsamples = 1\nvalue = [0, 1]"] ;
36 -> 37 ;
38 [label="x[2] <= 0.888\ngini = 0.097\nsamples = 195\nvalue = [185, 10]"] ;
36 -> 38 ;
39 [label="x[0] <= -0.009\ngini = 0.09\nsamples = 191\nvalue = [182, 9]"] ;
38 -> 39 ;
40 [label="x[0] <= -0.017\ngini = 0.15\nsamples = 61\nvalue = [56, 5]"] ;
39 -> 40 ;
41 [label="x[0] <= -0.513\ngini = 0.124\nsamples = 60\nvalue = [56, 4]"] ;
40 -> 41 ;
42 [label="gini = 0.0\nsamples = 23\nvalue = [23, 0]"] ;
41 -> 42 ;
43 [label="x[0] <= -0.492\ngini = 0.193\nsamples = 37\nvalue = [33, 4]"] ;
41 -> 43 ;
44 [label="gini = 0.0\nsamples = 2\nvalue = [0, 2]"] ;
43 -> 44 ;
45 [label="x[2] <= -0.017\ngini = 0.108\nsamples = 35\nvalue = [33, 2]"] ;
43 -> 45 ;
46 [label="x[0] <= -0.14\ngini = 0.059\nsamples = 33\nvalue = [32, 1]"] ;
45 -> 46 ;
47 [label="gini = 0.0\nsamples = 23\nvalue = [23, 0]"] ;
46 -> 47 ;
48 [label="x[0] <= -0.13\ngini = 0.18\nsamples = 10\nvalue = [9, 1]"] ;
46 -> 48 ;
49 [label="gini = 0.0\nsamples = 1\nvalue = [0, 1]"] ;
48 -> 49 ;
50 [label="gini = 0.0\nsamples = 9\nvalue = [9, 0]"] ;
48 -> 50 ;
51 [label="x[10] <= -0.04\ngini = 0.5\nsamples = 2\nvalue = [1, 1]"] ;
45 -> 51 ;
52 [label="gini = 0.0\nsamples = 1\nvalue = [1, 0]"] ;
51 -> 52 ;
53 [label="gini = 0.0\nsamples = 1\nvalue = [0, 1]"] ;
51 -> 53 ;
54 [label="gini = 0.0\nsamples = 1\nvalue = [0, 1]"] ;
40 -> 54 ;
55 [label="x[1] <= 2.216\ngini = 0.06\nsamples = 130\nvalue = [126, 4]"] ;
39 -> 55 ;
56 [label="x[1] <= 0.085\ngini = 0.047\nsamples = 124\nvalue = [121, 3]"] ;
55 -> 56 ;
57 [label="x[1] <= -0.11\ngini = 0.084\nsamples = 68\nvalue = [65, 3]"] ;
56 -> 57 ;
58 [label="x[4] <= -0.527\ngini = 0.036\nsamples = 55\nvalue = [54, 1]"] ;
57 -> 58 ;
59 [label="x[4] <= -0.527\ngini = 0.153\nsamples = 12\nvalue = [11, 1]"] ;
58 -> 59 ;
60 [label="gini = 0.0\nsamples = 10\nvalue = [10, 0]"] ;
59 -> 60 ;
61 [label="x[0] <= 0.694\ngini = 0.5\nsamples = 2\nvalue = [1, 1]"] ;
59 -> 61 ;
62 [label="gini = 0.0\nsamples = 1\nvalue = [0, 1]"] ;
61 -> 62 ;
63 [label="gini = 0.0\nsamples = 1\nvalue = [1, 0]"] ;
61 -> 63 ;
64 [label="gini = 0.0\nsamples = 43\nvalue = [43, 0]"] ;
58 -> 64 ;
65 [label="x[4] <= -0.492\ngini = 0.26\nsamples = 13\nvalue = [11, 2]"] ;
57 -> 65 ;
66 [label="gini = 0.0\nsamples = 7\nvalue = [7, 0]"] ;
65 -> 66 ;
67 [label="x[10] <= -0.04\ngini = 0.444\nsamples = 6\nvalue = [4, 2]"] ;
65 -> 67 ;
68 [label="x[1] <= 0.014\ngini = 0.32\nsamples = 5\nvalue = [4, 1]"] ;
67 -> 68 ;
69 [label="gini = 0.0\nsamples = 3\nvalue = [3, 0]"] ;
68 -> 69 ;
70 [label="x[0] <= 0.602\ngini = 0.5\nsamples = 2\nvalue = [1, 1]"] ;
68 -> 70 ;
71 [label="gini = 0.0\nsamples = 1\nvalue = [1, 0]"] ;
70 -> 71 ;
72 [label="gini = 0.0\nsamples = 1\nvalue = [0, 1]"] ;
70 -> 72 ;
73 [label="gini = 0.0\nsamples = 1\nvalue = [0, 1]"] ;
67 -> 73 ;
74 [label="gini = 0.0\nsamples = 56\nvalue = [56, 0]"] ;
56 -> 74 ;
75 [label="x[1] <= 2.287\ngini = 0.278\nsamples = 6\nvalue = [5, 1]"] ;
55 -> 75 ;
76 [label="gini = 0.0\nsamples = 1\nvalue = [0, 1]"] ;
75 -> 76 ;
77 [label="gini = 0.0\nsamples = 5\nvalue = [5, 0]"] ;
75 -> 77 ;
78 [label="x[4] <= -0.302\ngini = 0.375\nsamples = 4\nvalue = [3, 1]"] ;
38 -> 78 ;
79 [label="gini = 0.0\nsamples = 3\nvalue = [3, 0]"] ;
78 -> 79 ;
80 [label="gini = 0.0\nsamples = 1\nvalue = [0, 1]"] ;
78 -> 80 ;
81 [label="x[1] <= -0.714\ngini = 0.182\nsamples = 99\nvalue = [89, 10]"] ;
29 -> 81 ;
82 [label="x[0] <= -0.883\ngini = 0.36\nsamples = 17\nvalue = [13, 4]"] ;
81 -> 82 ;
83 [label="gini = 0.0\nsamples = 4\nvalue = [4, 0]"] ;
82 -> 83 ;
84 [label="x[0] <= 1.233\ngini = 0.426\nsamples = 13\nvalue = [9, 4]"] ;
82 -> 84 ;
85 [label="x[4] <= -0.533\ngini = 0.494\nsamples = 9\nvalue = [5, 4]"] ;
84 -> 85 ;
86 [label="gini = 0.0\nsamples = 2\nvalue = [2, 0]"] ;
85 -> 86 ;
87 [label="x[5] <= 0.378\ngini = 0.49\nsamples = 7\nvalue = [3, 4]"] ;
85 -> 87 ;
88 [label="x[1] <= -0.838\ngini = 0.444\nsamples = 6\nvalue = [2, 4]"] ;
87 -> 88 ;
89 [label="gini = 0.0\nsamples = 2\nvalue = [0, 2]"] ;
88 -> 89 ;
90 [label="x[6] <= 0.21\ngini = 0.5\nsamples = 4\nvalue = [2, 2]"] ;
88 -> 90 ;
91 [label="x[4] <= -0.496\ngini = 0.444\nsamples = 3\nvalue = [2, 1]"] ;
90 -> 91 ;
92 [label="gini = 0.0\nsamples = 2\nvalue = [2, 0]"] ;
91 -> 92 ;
93 [label="gini = 0.0\nsamples = 1\nvalue = [0, 1]"] ;
91 -> 93 ;
94 [label="gini = 0.0\nsamples = 1\nvalue = [0, 1]"] ;
90 -> 94 ;
95 [label="gini = 0.0\nsamples = 1\nvalue = [1, 0]"] ;
87 -> 95 ;
96 [label="gini = 0.0\nsamples = 4\nvalue = [4, 0]"] ;
84 -> 96 ;
97 [label="x[0] <= 1.233\ngini = 0.136\nsamples = 82\nvalue = [76, 6]"] ;
81 -> 97 ;
98 [label="x[1] <= 2.02\ngini = 0.097\nsamples = 78\nvalue = [74, 4]"] ;
97 -> 98 ;
99 [label="x[4] <= -0.622\ngini = 0.077\nsamples = 75\nvalue = [72, 3]"] ;
98 -> 99 ;
100 [label="x[1] <= 0.014\ngini = 0.444\nsamples = 3\nvalue = [2, 1]"] ;
99 -> 100 ;
101 [label="gini = 0.0\nsamples = 1\nvalue = [0, 1]"] ;
100 -> 101 ;
102 [label="gini = 0.0\nsamples = 2\nvalue = [2, 0]"] ;
100 -> 102 ;
103 [label="x[4] <= -0.523\ngini = 0.054\nsamples = 72\nvalue = [70, 2]"] ;
99 -> 103 ;
104 [label="x[4] <= -0.525\ngini = 0.137\nsamples = 27\nvalue = [25, 2]"] ;
103 -> 104 ;
105 [label="gini = 0.0\nsamples = 21\nvalue = [21, 0]"] ;
104 -> 105 ;
106 [label="x[1] <= 0.547\ngini = 0.444\nsamples = 6\nvalue = [4, 2]"] ;
104 -> 106 ;
107 [label="x[0] <= 0.073\ngini = 0.32\nsamples = 5\nvalue = [4, 1]"] ;
106 -> 107 ;
108 [label="gini = 0.0\nsamples = 4\nvalue = [4, 0]"] ;
107 -> 108 ;
109 [label="gini = 0.0\nsamples = 1\nvalue = [0, 1]"] ;
107 -> 109 ;
110 [label="gini = 0.0\nsamples = 1\nvalue = [0, 1]"] ;
106 -> 110 ;
111 [label="gini = 0.0\nsamples = 45\nvalue = [45, 0]"] ;
103 -> 111 ;
112 [label="x[1] <= 2.393\ngini = 0.444\nsamples = 3\nvalue = [2, 1]"] ;
98 -> 112 ;
113 [label="gini = 0.0\nsamples = 1\nvalue = [0, 1]"] ;
112 -> 113 ;
114 [label="gini = 0.0\nsamples = 2\nvalue = [2, 0]"] ;
112 -> 114 ;
115 [label="x[1] <= -0.412\ngini = 0.5\nsamples = 4\nvalue = [2, 2]"] ;
97 -> 115 ;
116 [label="gini = 0.0\nsamples = 1\nvalue = [0, 1]"] ;
115 -> 116 ;
117 [label="x[1] <= 0.511\ngini = 0.444\nsamples = 3\nvalue = [2, 1]"] ;
115 -> 117 ;
118 [label="gini = 0.0\nsamples = 2\nvalue = [2, 0]"] ;
117 -> 118 ;
119 [label="gini = 0.0\nsamples = 1\nvalue = [0, 1]"] ;
117 -> 119 ;
120 [label="x[0] <= -0.648\ngini = 0.241\nsamples = 57\nvalue = [49, 8]"] ;
28 -> 120 ;
121 [label="x[1] <= 0.05\ngini = 0.444\nsamples = 15\nvalue = [10, 5]"] ;
120 -> 121 ;
122 [label="x[4] <= -0.532\ngini = 0.49\nsamples = 7\nvalue = [3, 4]"] ;
121 -> 122 ;
123 [label="x[1] <= -0.607\ngini = 0.375\nsamples = 4\nvalue = [3, 1]"] ;
122 -> 123 ;
124 [label="gini = 0.0\nsamples = 1\nvalue = [0, 1]"] ;
123 -> 124 ;
125 [label="gini = 0.0\nsamples = 3\nvalue = [3, 0]"] ;
123 -> 125 ;
126 [label="gini = 0.0\nsamples = 3\nvalue = [0, 3]"] ;
122 -> 126 ;
127 [label="x[0] <= -1.7\ngini = 0.219\nsamples = 8\nvalue = [7, 1]"] ;
121 -> 127 ;
128 [label="gini = 0.0\nsamples = 1\nvalue = [0, 1]"] ;
127 -> 128 ;
129 [label="gini = 0.0\nsamples = 7\nvalue = [7, 0]"] ;
127 -> 129 ;
130 [label="x[1] <= -0.572\ngini = 0.133\nsamples = 42\nvalue = [39, 3]"] ;
120 -> 130 ;
131 [label="x[3] <= 0.156\ngini = 0.32\nsamples = 15\nvalue = [12, 3]"] ;
130 -> 131 ;
132 [label="x[1] <= -0.696\ngini = 0.245\nsamples = 14\nvalue = [12, 2]"] ;
131 -> 132 ;
133 [label="gini = 0.0\nsamples = 9\nvalue = [9, 0]"] ;
132 -> 133 ;
134 [label="x[0] <= 0.011\ngini = 0.48\nsamples = 5\nvalue = [3, 2]"] ;
132 -> 134 ;
135 [label="gini = 0.0\nsamples = 2\nvalue = [2, 0]"] ;
134 -> 135 ;
136 [label="x[0] <= 1.424\ngini = 0.444\nsamples = 3\nvalue = [1, 2]"] ;
134 -> 136 ;
137 [label="gini = 0.0\nsamples = 2\nvalue = [0, 2]"] ;
136 -> 137 ;
138 [label="gini = 0.0\nsamples = 1\nvalue = [1, 0]"] ;
136 -> 138 ;
139 [label="gini = 0.0\nsamples = 1\nvalue = [0, 1]"] ;
131 -> 139 ;
140 [label="gini = 0.0\nsamples = 27\nvalue = [27, 0]"] ;
130 -> 140 ;
141 [label="x[4] <= -0.141\ngini = 0.34\nsamples = 161\nvalue = [126, 35]"] ;
13 -> 141 ;
142 [label="gini = 0.0\nsamples = 3\nvalue = [0, 3]"] ;
141 -> 142 ;
143 [label="x[0] <= -1.271\ngini = 0.323\nsamples = 158\nvalue = [126, 32]"] ;
141 -> 143 ;
144 [label="x[0] <= -1.483\ngini = 0.493\nsamples = 25\nvalue = [14, 11]"] ;
143 -> 144 ;
145 [label="x[1] <= 3.174\ngini = 0.337\nsamples = 14\nvalue = [11, 3]"] ;
144 -> 145 ;
146 [label="x[4] <= 0.393\ngini = 0.26\nsamples = 13\nvalue = [11, 2]"] ;
145 -> 146 ;
147 [label="gini = 0.0\nsamples = 8\nvalue = [8, 0]"] ;
146 -> 147 ;
148 [label="x[1] <= -0.341\ngini = 0.48\nsamples = 5\nvalue = [3, 2]"] ;
146 -> 148 ;
149 [label="gini = 0.0\nsamples = 2\nvalue = [2, 0]"] ;
148 -> 149 ;
150 [label="x[0] <= -1.535\ngini = 0.444\nsamples = 3\nvalue = [1, 2]"] ;
148 -> 150 ;
151 [label="gini = 0.0\nsamples = 2\nvalue = [0, 2]"] ;
150 -> 151 ;
152 [label="gini = 0.0\nsamples = 1\nvalue = [1, 0]"] ;
150 -> 152 ;
153 [label="gini = 0.0\nsamples = 1\nvalue = [0, 1]"] ;
145 -> 153 ;
154 [label="x[6] <= 0.21\ngini = 0.397\nsamples = 11\nvalue = [3, 8]"] ;
144 -> 154 ;
155 [label="x[0] <= -1.449\ngini = 0.5\nsamples = 6\nvalue = [3, 3]"] ;
154 -> 155 ;
156 [label="gini = 0.0\nsamples = 1\nvalue = [1, 0]"] ;
155 -> 156 ;
157 [label="x[0] <= -1.401\ngini = 0.48\nsamples = 5\nvalue = [2, 3]"] ;
155 -> 157 ;
158 [label="gini = 0.0\nsamples = 2\nvalue = [0, 2]"] ;
157 -> 158 ;
159 [label="x[4] <= 0.074\ngini = 0.444\nsamples = 3\nvalue = [2, 1]"] ;
157 -> 159 ;
160 [label="gini = 0.0\nsamples = 1\nvalue = [0, 1]"] ;
159 -> 160 ;
161 [label="gini = 0.0\nsamples = 2\nvalue = [2, 0]"] ;
159 -> 161 ;
162 [label="gini = 0.0\nsamples = 5\nvalue = [0, 5]"] ;
154 -> 162 ;
163 [label="x[0] <= 1.712\ngini = 0.266\nsamples = 133\nvalue = [112, 21]"] ;
143 -> 163 ;
164 [label="x[1] <= -0.412\ngini = 0.248\nsamples = 131\nvalue = [112, 19]"] ;
163 -> 164 ;
165 [label="x[1] <= -1.832\ngini = 0.059\nsamples = 33\nvalue = [32, 1]"] ;
164 -> 165 ;
166 [label="x[12] <= 1.434\ngini = 0.5\nsamples = 2\nvalue = [1, 1]"] ;
165 -> 166 ;
167 [label="gini = 0.0\nsamples = 1\nvalue = [0, 1]"] ;
166 -> 167 ;
168 [label="gini = 0.0\nsamples = 1\nvalue = [1, 0]"] ;
166 -> 168 ;
169 [label="gini = 0.0\nsamples = 31\nvalue = [31, 0]"] ;
165 -> 169 ;
170 [label="x[1] <= 0.724\ngini = 0.3\nsamples = 98\nvalue = [80, 18]"] ;
164 -> 170 ;
171 [label="x[7] <= 0.507\ngini = 0.42\nsamples = 40\nvalue = [28, 12]"] ;
170 -> 171 ;
172 [label="x[1] <= -0.341\ngini = 0.485\nsamples = 29\nvalue = [17, 12]"] ;
171 -> 172 ;
173 [label="gini = 0.0\nsamples = 3\nvalue = [0, 3]"] ;
172 -> 173 ;
174 [label="x[4] <= -0.043\ngini = 0.453\nsamples = 26\nvalue = [17, 9]"] ;
172 -> 174 ;
175 [label="x[6] <= 0.21\ngini = 0.486\nsamples = 12\nvalue = [5, 7]"] ;
174 -> 175 ;
176 [label="x[4] <= -0.103\ngini = 0.346\nsamples = 9\nvalue = [2, 7]"] ;
175 -> 176 ;
177 [label="x[1] <= 0.227\ngini = 0.5\nsamples = 4\nvalue = [2, 2]"] ;
176 -> 177 ;
178 [label="gini = 0.0\nsamples = 2\nvalue = [2, 0]"] ;
177 -> 178 ;
179 [label="gini = 0.0\nsamples = 2\nvalue = [0, 2]"] ;
177 -> 179 ;
180 [label="gini = 0.0\nsamples = 5\nvalue = [0, 5]"] ;
176 -> 180 ;
181 [label="gini = 0.0\nsamples = 3\nvalue = [3, 0]"] ;
175 -> 181 ;
182 [label="x[0] <= -1.013\ngini = 0.245\nsamples = 14\nvalue = [12, 2]"] ;
174 -> 182 ;
183 [label="gini = 0.0\nsamples = 1\nvalue = [0, 1]"] ;
182 -> 183 ;
184 [label="x[5] <= 0.689\ngini = 0.142\nsamples = 13\nvalue = [12, 1]"] ;
182 -> 184 ;
185 [label="gini = 0.0\nsamples = 10\nvalue = [10, 0]"] ;
184 -> 185 ;
186 [label="x[0] <= 0.691\ngini = 0.444\nsamples = 3\nvalue = [2, 1]"] ;
184 -> 186 ;
187 [label="gini = 0.0\nsamples = 2\nvalue = [2, 0]"] ;
186 -> 187 ;
188 [label="gini = 0.0\nsamples = 1\nvalue = [0, 1]"] ;
186 -> 188 ;
189 [label="gini = 0.0\nsamples = 11\nvalue = [11, 0]"] ;
171 -> 189 ;
190 [label="x[0] <= -0.317\ngini = 0.185\nsamples = 58\nvalue = [52, 6]"] ;
170 -> 190 ;
191 [label="gini = 0.0\nsamples = 15\nvalue = [15, 0]"] ;
190 -> 191 ;
192 [label="x[0] <= -0.27\ngini = 0.24\nsamples = 43\nvalue = [37, 6]"] ;
190 -> 192 ;
193 [label="gini = 0.0\nsamples = 2\nvalue = [0, 2]"] ;
192 -> 193 ;
194 [label="x[2] <= 0.888\ngini = 0.176\nsamples = 41\nvalue = [37, 4]"] ;
192 -> 194 ;
195 [label="x[2] <= -0.017\ngini = 0.142\nsamples = 39\nvalue = [36, 3]"] ;
194 -> 195 ;
196 [label="gini = 0.0\nsamples = 19\nvalue = [19, 0]"] ;
195 -> 196 ;
197 [label="x[0] <= 0.949\ngini = 0.255\nsamples = 20\nvalue = [17, 3]"] ;
195 -> 197 ;
198 [label="x[1] <= 1.363\ngini = 0.42\nsamples = 10\nvalue = [7, 3]"] ;
197 -> 198 ;
199 [label="x[5] <= 0.378\ngini = 0.375\nsamples = 4\nvalue = [1, 3]"] ;
198 -> 199 ;
200 [label="gini = 0.0\nsamples = 3\nvalue = [0, 3]"] ;
199 -> 200 ;
201 [label="gini = 0.0\nsamples = 1\nvalue = [1, 0]"] ;
199 -> 201 ;
202 [label="gini = 0.0\nsamples = 6\nvalue = [6, 0]"] ;
198 -> 202 ;
203 [label="gini = 0.0\nsamples = 10\nvalue = [10, 0]"] ;
197 -> 203 ;
204 [label="x[3] <= 0.78\ngini = 0.5\nsamples = 2\nvalue = [1, 1]"] ;
194 -> 204 ;
205 [label="gini = 0.0\nsamples = 1\nvalue = [0, 1]"] ;
204 -> 205 ;
206 [label="gini = 0.0\nsamples = 1\nvalue = [1, 0]"] ;
204 -> 206 ;
207 [label="gini = 0.0\nsamples = 2\nvalue = [0, 2]"] ;
163 -> 207 ;
208 [label="x[10] <= -0.04\ngini = 0.275\nsamples = 364\nvalue = [60, 304]"] ;
0 -> 208 [labeldistance=2.5, labelangle=-45, headlabel="False"] ;
209 [label="x[4] <= -0.091\ngini = 0.068\nsamples = 199\nvalue = [7, 192]"] ;
208 -> 209 ;
210 [label="x[4] <= -0.104\ngini = 0.14\nsamples = 79\nvalue = [6, 73]"] ;
209 -> 210 ;
211 [label="x[0] <= 0.245\ngini = 0.12\nsamples = 78\nvalue = [5, 73]"] ;
210 -> 211 ;
212 [label="x[1] <= 1.825\ngini = 0.183\nsamples = 49\nvalue = [5, 44]"] ;
211 -> 212 ;
213 [label="x[0] <= 0.201\ngini = 0.153\nsamples = 48\nvalue = [4, 44]"] ;
212 -> 213 ;
214 [label="x[2] <= -0.017\ngini = 0.12\nsamples = 47\nvalue = [3, 44]"] ;
213 -> 214 ;
215 [label="gini = 0.0\nsamples = 30\nvalue = [0, 30]"] ;
214 -> 215 ;
216 [label="x[1] <= -0.377\ngini = 0.291\nsamples = 17\nvalue = [3, 14]"] ;
214 -> 216 ;
217 [label="gini = 0.0\nsamples = 6\nvalue = [0, 6]"] ;
216 -> 217 ;
218 [label="x[1] <= -0.199\ngini = 0.397\nsamples = 11\nvalue = [3, 8]"] ;
216 -> 218 ;
219 [label="gini = 0.0\nsamples = 2\nvalue = [2, 0]"] ;
218 -> 219 ;
220 [label="x[0] <= -0.969\ngini = 0.198\nsamples = 9\nvalue = [1, 8]"] ;
218 -> 220 ;
221 [label="gini = 0.0\nsamples = 6\nvalue = [0, 6]"] ;
220 -> 221 ;
222 [label="x[0] <= -0.404\ngini = 0.444\nsamples = 3\nvalue = [1, 2]"] ;
220 -> 222 ;
223 [label="gini = 0.0\nsamples = 1\nvalue = [1, 0]"] ;
222 -> 223 ;
224 [label="gini = 0.0\nsamples = 2\nvalue = [0, 2]"] ;
222 -> 224 ;
225 [label="gini = 0.0\nsamples = 1\nvalue = [1, 0]"] ;
213 -> 225 ;
226 [label="gini = 0.0\nsamples = 1\nvalue = [1, 0]"] ;
212 -> 226 ;
227 [label="gini = 0.0\nsamples = 29\nvalue = [0, 29]"] ;
211 -> 227 ;
228 [label="gini = 0.0\nsamples = 1\nvalue = [1, 0]"] ;
210 -> 228 ;
229 [label="x[5] <= 1.001\ngini = 0.017\nsamples = 120\nvalue = [1, 119]"] ;
209 -> 229 ;
230 [label="gini = 0.0\nsamples = 102\nvalue = [0, 102]"] ;
229 -> 230 ;
231 [label="x[1] <= -0.412\ngini = 0.105\nsamples = 18\nvalue = [1, 17]"] ;
229 -> 231 ;
232 [label="gini = 0.0\nsamples = 11\nvalue = [0, 11]"] ;
231 -> 232 ;
233 [label="x[1] <= -0.306\ngini = 0.245\nsamples = 7\nvalue = [1, 6]"] ;
231 -> 233 ;
234 [label="gini = 0.0\nsamples = 1\nvalue = [1, 0]"] ;
233 -> 234 ;
235 [label="gini = 0.0\nsamples = 6\nvalue = [0, 6]"] ;
233 -> 235 ;
236 [label="x[4] <= -0.196\ngini = 0.436\nsamples = 165\nvalue = [53, 112]"] ;
208 -> 236 ;
237 [label="x[0] <= -1.439\ngini = 0.364\nsamples = 142\nvalue = [34, 108]"] ;
236 -> 237 ;
238 [label="x[4] <= -0.525\ngini = 0.498\nsamples = 15\nvalue = [8, 7]"] ;
237 -> 238 ;
239 [label="gini = 0.0\nsamples = 4\nvalue = [0, 4]"] ;
238 -> 239 ;
240 [label="x[13] <= -0.422\ngini = 0.397\nsamples = 11\nvalue = [8, 3]"] ;
238 -> 240 ;
241 [label="x[1] <= -0.128\ngini = 0.48\nsamples = 5\nvalue = [2, 3]"] ;
240 -> 241 ;
242 [label="gini = 0.0\nsamples = 2\nvalue = [0, 2]"] ;
241 -> 242 ;
243 [label="x[3] <= 0.78\ngini = 0.444\nsamples = 3\nvalue = [2, 1]"] ;
241 -> 243 ;
244 [label="gini = 0.0\nsamples = 2\nvalue = [2, 0]"] ;
243 -> 244 ;
245 [label="gini = 0.0\nsamples = 1\nvalue = [0, 1]"] ;
243 -> 245 ;
246 [label="gini = 0.0\nsamples = 6\nvalue = [6, 0]"] ;
240 -> 246 ;
247 [label="x[12] <= 1.434\ngini = 0.326\nsamples = 127\nvalue = [26, 101]"] ;
237 -> 247 ;
248 [label="x[3] <= 3.898\ngini = 0.375\nsamples = 92\nvalue = [23, 69]"] ;
247 -> 248 ;
249 [label="x[4] <= -0.37\ngini = 0.367\nsamples = 91\nvalue = [22, 69]"] ;
248 -> 249 ;
250 [label="x[4] <= -0.393\ngini = 0.414\nsamples = 65\nvalue = [19, 46]"] ;
249 -> 250 ;
251 [label="x[4] <= -0.465\ngini = 0.361\nsamples = 55\nvalue = [13, 42]"] ;
250 -> 251 ;
252 [label="x[4] <= -0.492\ngini = 0.422\nsamples = 43\nvalue = [13, 30]"] ;
251 -> 252 ;
253 [label="x[1] <= -1.122\ngini = 0.32\nsamples = 35\nvalue = [7, 28]"] ;
252 -> 253 ;
254 [label="gini = 0.0\nsamples = 1\nvalue = [1, 0]"] ;
253 -> 254 ;
255 [label="x[4] <= -0.523\ngini = 0.291\nsamples = 34\nvalue = [6, 28]"] ;
253 -> 255 ;
256 [label="x[4] <= -0.535\ngini = 0.375\nsamples = 24\nvalue = [6, 18]"] ;
255 -> 256 ;
257 [label="gini = 0.0\nsamples = 6\nvalue = [0, 6]"] ;
256 -> 257 ;
258 [label="x[1] <= 0.795\ngini = 0.444\nsamples = 18\nvalue = [6, 12]"] ;
256 -> 258 ;
259 [label="x[0] <= 1.312\ngini = 0.415\nsamples = 17\nvalue = [5, 12]"] ;
258 -> 259 ;
260 [label="x[7] <= 0.507\ngini = 0.459\nsamples = 14\nvalue = [5, 9]"] ;
259 -> 260 ;
261 [label="x[0] <= 1.192\ngini = 0.346\nsamples = 9\nvalue = [2, 7]"] ;
260 -> 261 ;
262 [label="x[0] <= -0.564\ngini = 0.219\nsamples = 8\nvalue = [1, 7]"] ;
261 -> 262 ;
263 [label="x[0] <= -0.879\ngini = 0.444\nsamples = 3\nvalue = [1, 2]"] ;
262 -> 263 ;
264 [label="gini = 0.0\nsamples = 2\nvalue = [0, 2]"] ;
263 -> 264 ;
265 [label="gini = 0.0\nsamples = 1\nvalue = [1, 0]"] ;
263 -> 265 ;
266 [label="gini = 0.0\nsamples = 5\nvalue = [0, 5]"] ;
262 -> 266 ;
267 [label="gini = 0.0\nsamples = 1\nvalue = [1, 0]"] ;
261 -> 267 ;
268 [label="x[0] <= 0.95\ngini = 0.48\nsamples = 5\nvalue = [3, 2]"] ;
260 -> 268 ;
269 [label="x[0] <= 0.13\ngini = 0.375\nsamples = 4\nvalue = [3, 1]"] ;
268 -> 269 ;
270 [label="x[1] <= -0.448\ngini = 0.5\nsamples = 2\nvalue = [1, 1]"] ;
269 -> 270 ;
271 [label="gini = 0.0\nsamples = 1\nvalue = [0, 1]"] ;
270 -> 271 ;
272 [label="gini = 0.0\nsamples = 1\nvalue = [1, 0]"] ;
270 -> 272 ;
273 [label="gini = 0.0\nsamples = 2\nvalue = [2, 0]"] ;
269 -> 273 ;
274 [label="gini = 0.0\nsamples = 1\nvalue = [0, 1]"] ;
268 -> 274 ;
275 [label="gini = 0.0\nsamples = 3\nvalue = [0, 3]"] ;
259 -> 275 ;
276 [label="gini = 0.0\nsamples = 1\nvalue = [1, 0]"] ;
258 -> 276 ;
277 [label="gini = 0.0\nsamples = 10\nvalue = [0, 10]"] ;
255 -> 277 ;
278 [label="x[1] <= 1.399\ngini = 0.375\nsamples = 8\nvalue = [6, 2]"] ;
252 -> 278 ;
279 [label="x[1] <= -0.803\ngini = 0.245\nsamples = 7\nvalue = [6, 1]"] ;
278 -> 279 ;
280 [label="x[1] <= -1.442\ngini = 0.5\nsamples = 2\nvalue = [1, 1]"] ;
279 -> 280 ;
281 [label="gini = 0.0\nsamples = 1\nvalue = [1, 0]"] ;
280 -> 281 ;
282 [label="gini = 0.0\nsamples = 1\nvalue = [0, 1]"] ;
280 -> 282 ;
283 [label="gini = 0.0\nsamples = 5\nvalue = [5, 0]"] ;
279 -> 283 ;
284 [label="gini = 0.0\nsamples = 1\nvalue = [0, 1]"] ;
278 -> 284 ;
285 [label="gini = 0.0\nsamples = 12\nvalue = [0, 12]"] ;
251 -> 285 ;
286 [label="x[3] <= 0.156\ngini = 0.48\nsamples = 10\nvalue = [6, 4]"] ;
250 -> 286 ;
287 [label="x[1] <= -0.59\ngini = 0.48\nsamples = 5\nvalue = [2, 3]"] ;
286 -> 287 ;
288 [label="x[0] <= -0.553\ngini = 0.444\nsamples = 3\nvalue = [2, 1]"] ;
287 -> 288 ;
289 [label="gini = 0.0\nsamples = 1\nvalue = [0, 1]"] ;
288 -> 289 ;
290 [label="gini = 0.0\nsamples = 2\nvalue = [2, 0]"] ;
288 -> 290 ;
291 [label="gini = 0.0\nsamples = 2\nvalue = [0, 2]"] ;
287 -> 291 ;
292 [label="x[1] <= -1.193\ngini = 0.32\nsamples = 5\nvalue = [4, 1]"] ;
286 -> 292 ;
293 [label="x[0] <= 1.353\ngini = 0.5\nsamples = 2\nvalue = [1, 1]"] ;
292 -> 293 ;
294 [label="gini = 0.0\nsamples = 1\nvalue = [0, 1]"] ;
293 -> 294 ;
295 [label="gini = 0.0\nsamples = 1\nvalue = [1, 0]"] ;
293 -> 295 ;
296 [label="gini = 0.0\nsamples = 3\nvalue = [3, 0]"] ;
292 -> 296 ;
297 [label="x[5] <= 1.623\ngini = 0.204\nsamples = 26\nvalue = [3, 23]"] ;
249 -> 297 ;
298 [label="x[3] <= 0.156\ngini = 0.147\nsamples = 25\nvalue = [2, 23]"] ;
297 -> 298 ;
299 [label="x[4] <= -0.336\ngini = 0.408\nsamples = 7\nvalue = [2, 5]"] ;
298 -> 299 ;
300 [label="gini = 0.0\nsamples = 5\nvalue = [0, 5]"] ;
299 -> 300 ;
301 [label="gini = 0.0\nsamples = 2\nvalue = [2, 0]"] ;
299 -> 301 ;
302 [label="gini = 0.0\nsamples = 18\nvalue = [0, 18]"] ;
298 -> 302 ;
303 [label="gini = 0.0\nsamples = 1\nvalue = [1, 0]"] ;
297 -> 303 ;
304 [label="gini = 0.0\nsamples = 1\nvalue = [1, 0]"] ;
248 -> 304 ;
305 [label="x[3] <= 0.156\ngini = 0.157\nsamples = 35\nvalue = [3, 32]"] ;
247 -> 305 ;
306 [label="x[4] <= -0.547\ngini = 0.111\nsamples = 34\nvalue = [2, 32]"] ;
305 -> 306 ;
307 [label="gini = 0.0\nsamples = 1\nvalue = [1, 0]"] ;
306 -> 307 ;
308 [label="x[1] <= -0.004\ngini = 0.059\nsamples = 33\nvalue = [1, 32]"] ;
306 -> 308 ;
309 [label="gini = 0.0\nsamples = 25\nvalue = [0, 25]"] ;
308 -> 309 ;
310 [label="x[1] <= 0.174\ngini = 0.219\nsamples = 8\nvalue = [1, 7]"] ;
308 -> 310 ;
311 [label="gini = 0.0\nsamples = 1\nvalue = [1, 0]"] ;
310 -> 311 ;
312 [label="gini = 0.0\nsamples = 7\nvalue = [0, 7]"] ;
310 -> 312 ;
313 [label="gini = 0.0\nsamples = 1\nvalue = [1, 0]"] ;
305 -> 313 ;
314 [label="x[1] <= -1.761\ngini = 0.287\nsamples = 23\nvalue = [19, 4]"] ;
236 -> 314 ;
315 [label="gini = 0.0\nsamples = 1\nvalue = [0, 1]"] ;
314 -> 315 ;
316 [label="x[0] <= 1.685\ngini = 0.236\nsamples = 22\nvalue = [19, 3]"] ;
314 -> 316 ;
317 [label="x[2] <= 3.604\ngini = 0.172\nsamples = 21\nvalue = [19, 2]"] ;
316 -> 317 ;
318 [label="gini = 0.0\nsamples = 15\nvalue = [15, 0]"] ;
317 -> 318 ;
319 [label="x[1] <= -0.27\ngini = 0.444\nsamples = 6\nvalue = [4, 2]"] ;
317 -> 319 ;
320 [label="x[1] <= -1.229\ngini = 0.444\nsamples = 3\nvalue = [1, 2]"] ;
319 -> 320 ;
321 [label="gini = 0.0\nsamples = 1\nvalue = [0, 1]"] ;
320 -> 321 ;
322 [label="x[0] <= 0.289\ngini = 0.5\nsamples = 2\nvalue = [1, 1]"] ;
320 -> 322 ;
323 [label="gini = 0.0\nsamples = 1\nvalue = [0, 1]"] ;
322 -> 323 ;
324 [label="gini = 0.0\nsamples = 1\nvalue = [1, 0]"] ;
322 -> 324 ;
325 [label="gini = 0.0\nsamples = 3\nvalue = [3, 0]"] ;
319 -> 325 ;
326 [label="gini = 0.0\nsamples = 1\nvalue = [0, 1]"] ;
316 -> 326 ;
}
